nep3 2 Si C 
cutoff 6 4 132 40
n_max 8 8
basis_size 8 8
l_max 4 2 0
ANN 30 0
 -2.7684021e-01
  5.3675425e-01
  9.7070616e-01
 -1.7385522e-02
 -1.7074774e-01
 -4.7004521e-01
  2.4350351e-03
 -1.3477969e+00
 -9.0743381e-01
 -7.3897725e-01
  4.0265713e-02
  8.2814835e-02
  3.3206254e-02
 -1.5558712e-01
  2.9278570e-01
  1.9579864e-01
  7.4558198e-02
  1.7416616e-01
  8.4944409e-01
 -1.8999393e-01
 -2.8810731e-01
 -2.2327223e-01
  4.8084255e-02
 -6.1518598e-01
  6.8626225e-02
  4.9612898e-02
 -6.9980919e-02
 -3.6802104e-01
 -4.4654602e-01
 -4.9598622e-03
 -3.7906995e-01
 -5.9478177e-04
 -3.9652348e-01
  6.3042480e-01
  2.7486915e-02
  3.7831557e-01
  2.2467901e-05
  1.2958816e-02
 -2.8710079e-01
  1.4301992e-03
  8.0768806e-01
 -5.1387757e-01
 -7.7052593e-01
  9.9214768e-01
 -2.9227984e-01
 -3.2828084e-01
 -5.4941154e-01
 -1.4284287e-04
  2.5039837e-01
 -1.1491328e-01
 -1.2664250e-01
  4.3192376e-05
  9.3111521e-05
  4.0866607e-01
 -1.2754524e+00
 -5.8904946e-01
  9.0534188e-02
 -9.1586322e-01
 -3.9002061e-01
 -1.8845942e+00
 -9.5992541e-01
 -1.9566272e-01
  1.5489312e-01
  2.1010664e-01
 -3.0305364e-05
 -1.4019969e+00
  3.4593192e-01
  4.3331743e-06
  1.5375572e+00
  7.4311886e-03
 -3.1547827e-01
  3.0086535e-01
 -6.2116906e-02
  1.0012729e+00
  1.7450559e-01
  2.2744672e-01
  8.3586067e-01
  3.8174790e-01
 -6.6220986e-05
 -3.8823012e-01
 -1.5651523e+00
  2.7099147e-01
  2.7640977e-05
 -1.1331601e-04
  1.7200232e-02
  5.7052281e-03
  5.4972184e-01
  3.9500827e-01
  2.8051329e-01
 -3.5451654e-01
 -1.6518201e-01
  4.8294067e-05
 -8.4653930e-06
 -2.2259363e-05
  7.2265720e-01
  3.3830985e-04
 -1.1764755e+00
  1.2099408e-01
 -5.5734143e-02
  5.2244030e-02
 -4.7514654e-06
  3.0311105e-01
 -1.8083754e-05
 -5.0139105e-01
 -5.5534054e-02
  2.6959584e-05
 -8.9879689e-04
  6.4222208e-05
  1.7030007e+00
 -5.2847415e-01
  1.0325843e-02
 -2.8145558e-01
  3.2619688e-01
  2.3697968e-01
  6.0421902e-01
  7.3022062e-01
  2.8357038e+00
 -6.8310177e-01
  7.5679576e-01
 -3.8672674e-01
  4.5317915e-01
 -1.1193359e-01
 -1.0921565e-01
 -2.5139695e-01
  1.5502909e+00
 -3.5458785e-01
  5.5052531e-01
  4.2084166e-01
 -1.2709410e+00
  2.3777752e+00
  7.3924206e-02
  3.9981598e-01
  4.7941798e-01
  1.2187997e+00
 -2.3210205e-01
  2.5597930e+00
  5.1844668e-01
 -1.0729154e+00
  1.1214421e+00
  1.8216554e-02
 -2.4726416e-01
 -1.0241295e+00
  3.2530427e+00
 -3.6451140e-01
  4.4964969e-01
  1.0435641e+00
 -3.8528230e-02
 -2.9487699e-01
 -2.8921980e-01
  8.1436455e-01
 -5.8713865e-01
  1.3781092e+00
 -5.6943971e-01
 -3.2679494e-03
 -8.6340278e-01
 -5.1324137e-02
  2.2288938e+00
  8.4186831e-05
 -1.5784256e-01
  2.6369711e-02
  4.8022544e-01
 -3.1883392e-05
 -1.6160001e-01
  5.7893459e-02
  1.2784804e+00
  4.0495779e-02
 -8.2191420e-01
 -1.3964540e-01
 -5.6575090e-01
 -4.8734233e-01
 -8.2309061e-01
 -1.0591003e+00
 -1.9335775e+00
 -6.3180852e-01
 -7.3654485e-01
  3.4419343e-01
  1.9503453e-01
  1.2483618e+00
 -6.8847150e-01
 -7.6756410e-02
 -8.4954816e-01
 -5.2228957e-01
 -3.9756238e-01
 -5.0138348e-01
 -3.1515649e-01
 -1.7806619e-01
  6.0349065e-01
 -1.3491970e-02
  2.4478540e-01
  4.3818888e-01
 -5.3610498e-01
 -6.7214251e-01
 -1.5489745e-02
 -1.9494549e+00
 -8.1158531e-01
  2.6897570e-01
  2.8082397e+00
 -4.2941368e-01
  2.4298619e-01
  2.8560591e-01
 -2.0507708e-01
  2.1634247e+00
 -6.5495265e-01
 -4.0090103e+00
  1.4721391e+00
  2.6543734e+00
 -5.0507402e-01
  5.5611050e-01
  3.5341728e-02
  3.7662294e-02
 -7.6952904e-02
  6.5458640e-05
  1.0494763e-05
  7.6349318e-01
  3.0208235e-03
 -9.8749833e-06
  3.0386323e-01
  5.3152311e-01
 -1.0876920e-01
  1.2715245e+00
 -1.7235440e+00
 -2.1173935e-03
 -6.1864835e-01
  5.1152378e-02
 -4.1760163e-06
 -2.4595819e-01
  2.0891799e-01
  1.1224561e-01
 -1.3983508e-02
 -1.8729870e+00
 -2.8343561e-01
 -4.9401426e-01
 -1.2778223e-01
  3.0188826e-01
  1.4628854e-02
  8.1695479e-01
  4.5738927e-01
  1.7721082e+00
  1.0618528e+00
  7.1758073e-04
  4.4718634e-02
  2.0507499e-04
 -1.0383668e+00
  6.9321072e-01
 -8.0106609e-02
 -1.4746512e+00
  1.0006101e+00
  6.5916538e-01
  2.1887780e-04
  1.8525559e+00
 -1.5692880e-05
 -2.9030102e-01
  1.0688380e-02
  3.9396796e-01
  3.3454761e-01
 -7.4612733e-04
  5.2359295e-01
  1.2079092e-04
 -2.5758532e-01
 -4.9006194e-01
  4.7395393e-04
  2.8186825e-01
 -1.2134943e-04
  3.1485659e-01
 -2.8081380e-05
  7.2505426e-01
  1.3317962e-01
 -2.3328184e-05
  6.9505066e-02
 -2.6742628e-01
 -3.8000095e-01
  1.4438280e+00
  3.4371498e+00
 -3.8216379e-01
  2.0583738e-02
 -7.4318431e-02
 -3.5954538e-01
  2.8347489e-01
  1.2325258e+00
 -1.3905872e-01
 -2.9849743e-06
  1.4868788e-01
 -9.1396827e-01
 -4.9967998e-01
  7.2063345e-01
  6.6474903e-01
  3.4936011e-01
 -6.7991700e-06
 -7.8750056e-01
  2.9917240e-01
  5.1632309e-01
 -1.1127844e-01
 -1.2756429e-05
  5.6413854e-03
 -3.9591554e-01
 -4.2530837e-07
 -6.4850771e-01
  2.2877181e+00
 -8.7029235e-03
  2.1379401e-05
 -5.1329499e-01
 -3.9276888e-04
  8.5813141e-01
 -6.4941019e-01
  2.2849272e-06
 -1.5537317e-01
 -2.1105126e-01
 -2.8682258e-05
  2.7683500e-04
 -1.3370766e-01
  9.5773983e-05
 -5.7693887e-01
  1.0536121e-04
 -1.2625494e-05
 -6.0831583e-01
  1.4746626e-04
  6.0279483e-01
 -3.1230971e-05
 -3.3601764e-01
  3.7559257e-05
 -8.9549407e-02
  2.1787928e-05
  6.5287561e-05
  3.1878686e-01
 -1.8222336e+00
  1.2072054e+00
 -7.0092618e-01
  9.0175670e-01
  4.4815493e-01
  2.3417761e+00
  1.6736732e+00
  6.6398060e-01
 -1.6416156e-05
  2.1899170e-01
 -3.8899702e-04
  1.3595126e+00
  2.3154688e-01
 -3.9919305e-01
 -3.4121877e-01
  1.2836795e-02
  6.5398677e-07
 -8.4194738e-01
  9.8695970e-01
  1.1968040e-01
 -4.1361141e-01
  1.4296856e-02
  4.1411042e-01
 -2.7747688e-05
 -1.9037414e-02
  6.0526796e-05
 -1.3969854e-01
 -1.2833729e+00
 -1.1115528e-04
 -9.5012677e-01
 -1.0292286e+00
  1.4990791e+00
 -1.6308343e-01
 -5.7421744e-01
 -3.8107426e+00
  2.0230161e-02
 -4.9749830e-01
 -2.8171435e-01
  1.2473072e-01
 -2.3742764e-01
  2.2312554e-02
 -1.7806811e+00
 -7.9575652e-01
  3.4994312e-02
 -3.9103630e-01
  6.4166230e-01
 -9.4044000e-05
 -4.5141045e-05
 -5.7154363e-01
  1.5823592e-01
  2.9699925e-01
  3.8350805e-05
 -2.3020117e-01
  2.2208288e-02
  7.8139126e-01
 -1.2479670e-01
 -7.0005304e-01
 -8.8894999e-01
  7.6013887e-01
 -2.5483711e+00
  3.5741770e-01
  1.8161526e+00
 -2.3083537e+00
  1.8492116e-01
  3.7442917e-01
  2.3445885e-01
 -1.0082026e+00
 -1.0720184e+00
 -1.1968883e+00
  6.4124852e-01
  7.0462203e-01
 -6.1220807e-01
  1.7469475e+00
 -1.4866383e+00
  8.8425204e-03
 -3.5298008e-01
 -1.2404969e-01
 -7.2930139e-01
 -6.6130698e-02
  1.0364566e+00
 -2.9415235e-02
  9.0566480e-01
 -1.1966893e-01
 -1.8464150e-01
 -3.7446260e-01
 -3.1618851e-01
  3.3236063e-01
 -3.6851682e-02
 -8.4916312e-01
  1.2631381e-04
 -4.9755309e-02
 -1.0979114e-05
  3.4604576e-01
 -1.1136476e-01
 -2.8534436e-01
 -2.6568285e-01
  2.3981893e-01
  4.8025444e-04
  1.6244179e-01
  3.6532417e-01
  3.2005235e-05
 -1.0967611e-01
  5.3238654e-01
 -1.6675345e-05
  6.2812783e-06
 -5.6957632e-01
 -8.6735463e-06
 -3.2145989e-01
 -1.0843462e+00
  1.2903090e+00
 -2.6128745e-01
 -1.3531314e-01
  1.6507486e+00
  7.2905511e-01
 -1.0428723e+00
 -6.0666818e-04
  1.4362696e-05
  5.7106805e-01
  7.2288915e-04
  9.6260953e-01
 -9.4769311e-01
 -2.2344403e+00
  3.7813312e-01
  1.5810881e-03
  4.9625443e-05
  3.3944011e-02
 -9.0346988e-03
  1.6419144e-03
  5.5660075e-01
 -3.6089677e-01
  9.0453684e-02
 -9.6527472e-02
 -2.5725747e-03
  2.5061288e-05
 -1.2866788e-01
  1.2072631e-05
 -4.4946322e-01
 -5.2604515e-02
  5.0495495e-05
 -2.2554907e-01
  4.0107209e-02
 -3.6148736e-05
 -1.9650474e-02
  3.8308710e-01
  9.0457029e-08
  5.5827699e-03
 -2.8107059e-03
 -4.8903760e-01
  4.1675603e-01
 -4.6011428e-05
 -7.1414863e-05
  2.6717088e-01
  1.0993962e-04
  1.6372472e-04
  1.1307863e-05
  1.5099162e-04
  1.2035758e+00
 -4.8742899e-05
  1.8686615e-04
  2.0928946e-01
  1.4082764e-05
  5.0158527e-02
  1.4693454e-05
 -2.0999516e-05
  7.7285869e-05
 -9.6423537e-05
 -1.2849925e-05
 -1.9123921e-05
 -1.8189958e-05
  2.0386457e-05
  2.2829216e-05
  4.9714613e-06
 -9.0675181e-05
  1.9754794e-05
  7.3335868e-05
  1.9030897e-05
  2.2845396e-05
  6.5250140e-05
 -6.6884959e-06
 -2.4442116e-07
  1.8956048e-06
  8.3445550e-05
  1.9539812e-05
  5.4493223e-05
 -1.0654941e-05
 -2.7200957e-05
  1.2103592e-05
 -3.8972346e-05
  7.8015139e-05
 -5.9414851e-05
  1.0518571e-05
  8.6316777e-06
 -9.0972491e-05
  2.3629417e-08
  1.4802840e-05
 -1.1907590e-05
  1.1269489e-06
 -3.1631721e-06
  5.5111537e-05
  4.9271137e-07
 -1.3606088e-06
 -5.7957634e-05
  1.8946372e-05
 -9.2101618e-05
 -3.6334502e-08
  4.3459463e-06
 -5.6026744e-05
  9.6394451e-06
 -1.5005256e-05
 -3.9194154e-05
  1.4351910e-05
  1.3001015e-06
 -2.2565469e-05
  6.1545405e-05
  1.2897321e-05
 -4.0181360e-05
  3.6550485e-02
 -1.0807699e+00
 -3.3879559e+00
 -2.0539184e+00
  6.1548960e-01
  6.8899822e-01
 -8.7167341e-01
 -7.9115188e-01
  1.1726803e+00
  2.6736870e-01
 -7.1534736e-04
 -2.9128377e-04
  4.5767131e-01
 -4.5907480e-01
  1.5338708e-05
  4.2251674e-03
 -8.5341491e-02
  7.6041567e-01
  5.5779945e-02
  6.4843312e-06
 -7.2029376e-01
  3.2727075e-01
 -1.7828931e-01
  3.6105127e-06
  2.7718046e-04
 -1.4107420e+00
 -1.6537089e-05
 -2.5587764e+00
  1.8966317e-04
  1.6019824e+00
  2.7894921e-05
  7.0834482e-01
  1.0262277e+00
  2.6165548e-01
  6.6076058e-01
  7.7905816e-01
  2.5623556e-02
 -3.1901419e-02
  4.3653441e-04
 -5.4961001e-05
 -4.4086644e-01
  5.0778810e-02
  7.7661729e-01
 -4.3781922e-05
 -1.1531144e-01
 -1.9442575e-01
  2.7252747e-05
 -4.9681152e-04
 -7.0252858e-02
 -9.1161892e-05
  8.3570816e-02
  6.4404565e-05
 -1.0676667e-04
 -1.3973977e-04
 -1.1259017e-05
  2.7259026e-04
 -8.0872022e-02
  5.6570084e-06
  4.6725031e-03
  1.2519803e-04
  1.2487930e-05
  1.0005151e-05
  1.0950790e-04
 -5.0910901e-05
  2.3048309e-04
  2.2531049e-02
  3.3898961e-02
  8.5113628e-04
 -3.7322163e-05
  3.8750350e-04
  9.0979484e-06
  7.2795956e-05
  4.0914075e-04
  1.9669895e-04
  2.0209848e-04
  1.1414248e-01
  2.3416658e-06
 -9.9552308e-05
  2.7607484e-05
  3.2877360e-05
  3.4483506e-05
  2.2205712e-02
 -1.3121089e-05
  7.4060969e-03
  9.7587079e-05
  2.2468844e-04
  1.1679069e-03
  5.5594187e-02
  1.3643202e-04
  1.0190395e-04
  3.3645758e-03
 -2.0363354e-04
  1.2968898e-04
  4.0834981e-05
 -5.7321111e-05
  4.8536266e-04
 -5.9055350e-05
 -2.3418285e-04
  9.6776886e-05
  1.1341971e-05
  1.1199759e-04
  8.5600614e-06
 -1.0443231e-04
  1.0198238e-05
  7.4465843e-06
 -2.6793110e-05
  3.1345116e-05
  7.9772544e-06
  4.9760550e-02
 -4.4769546e-01
 -6.3743971e-02
  4.4395766e-01
  2.2727579e-01
 -4.0139896e-01
 -1.0059538e+00
 -9.5127112e-01
  2.1523908e-01
  2.4101555e-01
 -1.1122437e-02
  6.5400296e-01
 -3.7553344e-02
 -6.5727842e-01
 -8.2398134e-01
  2.2338103e-05
  3.4630260e-01
 -6.6433030e-01
  7.7455536e-02
  1.7840388e-01
  4.1406867e-01
 -2.6586601e-01
 -2.9031357e-01
  2.4686258e-01
  2.4546409e-05
  4.4660798e-01
  2.3609468e-01
  7.3989820e-01
  3.6312857e-05
 -3.1281701e-01
  6.4328426e-01
 -1.9053810e-05
 -1.6303989e-01
 -3.4573990e-01
 -2.4147400e-01
  3.7197983e-01
 -5.4492556e-02
 -7.9568657e-05
  6.9004268e-06
  4.7011033e-02
  7.6902348e-01
 -8.2493891e-05
  5.0995231e-04
 -6.7615123e-03
  5.8448160e-01
  1.5166344e-03
 -7.4206473e-05
  7.8685489e-06
 -8.1217515e-01
 -1.0662718e-02
 -2.9004568e-02
 -4.4200361e-02
 -6.9642783e-04
 -6.5238184e-01
 -6.9955446e-02
  8.6361527e-01
  3.4751153e+00
  5.7868212e-01
  9.4603973e-05
  7.5437501e-02
  4.4040194e-01
 -6.0011214e-01
  4.2042530e-01
 -4.1255229e-03
  3.6430763e-05
  5.8172196e-01
  7.0048392e-01
  6.8680610e-04
 -5.4549500e-03
  1.4107788e-01
  1.4315453e-01
  1.3376121e-01
 -2.8380037e-03
  6.2600775e-05
  5.1211840e-01
  2.7951228e-02
  2.1078331e-02
 -1.1343300e+00
 -3.7614250e-01
 -1.7531915e-01
 -2.5749859e-01
  3.5092318e-01
  2.3811354e-04
 -3.4220895e-01
  3.1358123e-01
  4.5711622e-06
  6.9495636e-01
 -4.2283195e-06
  6.0223329e-01
  2.2570026e-01
 -3.3359471e-01
 -1.0750216e-05
  3.3036828e-01
  1.5723725e-05
  4.2269171e-06
 -8.1025057e-05
  5.4859952e-06
  3.8842245e-05
 -7.0541865e-01
 -3.4738114e-05
 -2.5839898e-05
  1.7549011e-05
 -2.5092706e-01
  8.1532831e-05
 -5.1241204e-05
 -2.7237957e-05
  1.1890539e-06
  1.3265926e-05
  8.9548539e-06
  3.6742856e-06
 -6.1353910e-01
 -6.6761377e-06
  8.6885062e-04
  6.6248307e-05
  5.0817009e-05
  1.8443834e-05
 -4.3156861e-06
 -2.6995447e-05
  8.9538144e-06
  9.6484218e-05
  6.7618536e-04
  3.6191119e-05
  9.4657829e-05
  3.5295023e-05
  1.2890450e-04
  3.0107435e-04
  3.8050312e-05
 -1.0055627e-05
 -1.1836300e-05
  6.6857954e-04
  1.8184925e-05
  9.3664552e-05
  7.0483598e-05
  2.0844931e-05
  1.2033485e-05
 -8.3139996e-05
 -3.2064370e-05
 -3.9780596e-05
 -7.6936631e-05
  3.0737116e-05
  2.2788516e-05
  4.0353776e-04
 -6.1277744e-05
  7.8587502e-04
 -5.6409102e-05
 -5.2741827e-05
 -5.0325034e-06
  4.2108868e-06
 -2.2899820e-05
  4.6801770e-06
  7.2471202e-08
 -4.4705098e-06
 -4.9012715e-06
 -2.5016085e-05
  3.9463201e-05
  3.4268345e-05
 -3.0467205e-04
  1.2534004e-04
  9.8606783e-05
 -1.0838944e-05
  8.2989718e-06
 -3.7298178e-05
  1.5686798e+00
 -6.9756484e-01
  1.2169011e+00
 -4.3399477e-01
 -8.0737248e-02
 -9.6152544e-01
  1.8162277e-01
  1.8142791e+00
 -7.7198476e-02
  1.4257709e+00
 -8.5771419e-02
 -1.0525882e+00
 -1.3070247e+00
  9.0250701e-01
  3.1032173e-02
  4.9702361e-01
  2.2984007e-01
 -1.7142822e+00
  1.7436397e-01
 -4.6804211e-01
 -5.7576531e-01
  9.4225295e-02
  3.3002816e-05
  4.8118538e-01
  1.0797858e+00
  7.0876577e-06
 -4.2698696e-01
  6.4466709e-01
  4.3249183e-05
  1.9199004e-02
 -1.9049327e+00
  6.0894829e-01
  2.7907204e-02
 -1.2989001e-01
 -5.2469099e-01
  2.4923153e-04
 -1.2820711e+00
 -2.7701014e-01
 -7.8606945e-01
 -3.1104158e-03
 -1.9209658e-01
 -4.1436738e-01
 -3.9728163e-03
 -1.3186333e-04
 -8.1489123e-03
  3.3024520e-05
 -4.7690234e-01
  1.6150764e-03
 -1.0781660e+00
  1.0984118e-01
 -2.7147587e-03
 -3.4783971e-01
 -2.8291903e-02
 -1.0619946e-01
  1.0402386e+00
 -4.0663725e-01
 -1.2243921e+00
 -1.1855103e+00
  1.4755628e-01
  4.9833453e-01
 -3.5921618e-01
 -4.5822207e-02
 -9.0137407e-02
 -7.5671470e-01
 -4.8750716e-01
  2.9180995e-01
  1.5190797e+00
  3.3606568e-01
 -1.9922443e-01
  9.8050714e-01
  7.7190168e-02
  7.3550552e-01
 -4.2461389e-01
 -5.5315518e-03
 -2.8206939e-01
 -9.7486131e-02
  3.2195213e-01
  7.1165949e-01
  1.2534591e+00
  1.0874639e-01
  1.1892729e+00
 -1.6126148e-01
  5.7460554e-02
 -2.9503849e-01
  1.1148740e+00
  5.7379413e-01
 -5.5402786e-02
 -1.2426282e+00
 -2.1094229e+00
  1.7345300e+00
  2.3960952e-01
 -4.2032623e-01
 -7.4785674e-01
  2.2313852e+00
  2.4035158e+00
  1.2446395e+00
 -2.3601098e+00
 -1.2519865e-02
  8.1526697e-01
 -3.1584033e-01
  5.7366968e-05
 -2.9969689e-01
  1.9125088e-01
 -8.1890211e-02
  3.5101097e-05
  1.4435153e-05
 -2.0850298e-01
 -6.3782912e-01
 -1.8117239e-01
 -9.3509085e-02
  8.5333955e-01
  1.2875117e+00
  1.9599771e-01
  2.5276843e-01
 -3.2163855e-02
  8.4760135e-01
  5.9926212e-01
 -7.4861204e-04
 -3.4168884e-01
 -1.0796433e-02
 -8.3637381e-01
  1.0046910e+00
 -8.8054979e-01
  9.6472561e-01
 -3.3081248e-01
  5.4587519e-01
  4.1758630e-01
 -9.7717476e-01
 -3.8699350e-01
 -3.2479944e+00
 -1.0402122e-01
  1.6612321e-01
 -3.4142357e-01
  1.1979502e+00
  9.3087554e-01
 -1.0448850e+00
  3.3311093e-01
 -8.6711034e-02
 -2.5495732e-01
  1.0552511e+00
 -2.4053006e+00
  6.9634980e-01
 -1.6483098e+00
  9.5284522e-01
 -1.4647040e-01
 -2.5787644e+00
  3.4591355e-04
 -2.5102451e+00
 -4.9413708e-01
  2.4707977e-06
 -5.5003065e-01
 -7.2035380e-02
  1.0299981e+00
 -3.6107904e-01
 -5.7439667e-01
 -9.5439982e-03
  2.0577089e-01
  1.5209775e-01
 -3.6507739e-05
 -1.4238339e-02
 -2.3698250e-03
  1.7627501e-01
  1.5815993e-01
  8.5026580e-01
  1.2396587e+00
 -1.1511796e+00
  3.0755806e-01
 -7.7019966e-01
  3.5288918e-01
 -4.9997768e-01
  1.5103886e+00
 -7.3333156e-01
  5.0971624e-02
 -2.3753774e-01
  1.4852726e-01
 -9.8682191e-05
 -8.5208401e-02
  9.8734272e-05
  4.4167154e-02
 -4.0525773e-01
 -8.7274052e-02
  1.4408713e-05
 -3.7683585e-05
  1.1446224e+00
  2.4400149e-04
  5.2790514e-05
  1.2175449e+00
  4.4752359e-01
 -3.5415924e-01
 -2.0890942e-01
  3.1616015e-04
 -6.3935602e-01
  4.9826363e-01
 -5.8394752e-04
  8.8628508e-02
 -3.4189644e-01
 -2.4979810e-05
  2.9991588e-01
 -3.4623915e-01
  2.3305800e-04
  1.9965056e-01
  1.5271786e-01
 -7.4864423e-05
 -5.6684890e-05
 -1.5811498e-01
  8.0253512e-02
 -4.3237753e-02
  2.3201832e-05
 -2.9438903e-04
 -7.0238922e-05
  2.4602285e-01
 -8.2667924e-05
  6.5338206e-01
 -5.0804118e-04
 -6.5151915e-05
  1.0439277e+00
  4.4564039e-02
 -3.1954341e-02
 -2.9694209e+00
  4.7825950e-01
 -4.9689996e-01
 -1.9135866e-01
 -1.0149580e-01
 -8.0466360e-01
 -2.9140613e+00
  2.8911815e-03
 -4.1557875e-01
  4.0305364e-01
  7.9258400e-01
  4.4056650e-02
 -4.7034219e-01
 -4.4834328e-01
 -6.5898442e-01
 -2.4326196e-01
 -2.7418292e-01
  5.6358337e-01
  5.8080044e-02
 -1.7151785e+00
  9.8308109e-02
  3.5868883e-01
  5.7900447e-01
 -9.5144147e-05
  7.0008832e-01
 -7.4495745e-01
 -9.6368712e-01
 -2.0694757e-01
 -9.2490494e-01
  6.5249592e-02
 -6.0814935e-01
  1.7039937e-01
  4.7251979e-01
 -1.6060308e-02
 -7.4425232e-01
  5.4314522e-05
 -5.3451544e-01
 -1.1458350e+00
  4.0603754e-01
 -4.9305075e-01
 -4.5237920e-01
 -6.0826633e-03
  3.4480396e-01
 -6.0427213e-01
  6.2286435e-03
  2.0180519e-04
 -4.4687800e-02
 -5.5164523e-02
 -1.0322787e-04
 -4.3770227e-01
  2.2123054e-01
 -4.5107028e-01
  3.7668276e-01
 -1.7120072e-01
 -6.2275475e-01
 -1.9586411e-01
 -1.5430288e+00
  4.1148081e-01
 -1.1872002e+00
  5.7071853e-01
 -9.9004341e-05
  4.0547714e-01
 -8.5027254e-01
  1.3966536e-03
 -5.2555245e-01
 -4.0861794e-01
 -4.2926773e-02
  2.3684464e-03
 -8.3810508e-01
  1.3980272e-01
  7.4663199e-02
 -9.7936612e-01
  1.1160374e-01
  1.9438288e-01
 -7.7611220e-01
 -7.2991431e-01
 -3.0540816e-02
  3.2652077e-01
  4.1019723e-02
  1.3854569e+00
  2.0199947e-01
 -1.3108213e-01
 -6.8933994e-01
 -4.7887722e-01
 -2.0536497e+00
  4.0006526e-02
  1.8866632e+00
  8.0313313e-01
 -4.2007759e-01
 -4.4116196e-01
 -6.2616181e-01
 -1.7677531e-06
 -2.1960051e-01
 -8.1908584e-02
  2.2170390e-01
 -1.2185087e-01
  8.0805176e-01
  2.8983268e-01
  8.5686821e-05
 -2.9906938e-05
  1.5414675e-01
 -4.6285754e-01
  5.0882584e-01
 -1.0394260e-02
  3.8879112e-05
 -1.9305155e-01
  5.2207297e-01
 -5.2435166e-01
 -9.5142484e-01
  5.9227830e-01
  5.0832838e-01
  8.2801306e-01
  1.0538317e+00
  9.1333324e-01
  8.3930612e-01
 -1.1011623e-02
 -1.0218535e-01
  7.0619427e-02
 -4.9069565e-02
  1.5310779e+00
 -4.7538154e-02
 -1.0237117e+00
  7.9810756e-01
 -3.9847934e-01
 -1.3215480e+00
  4.4269064e-01
  2.0955770e-01
  9.1318613e-01
  1.2651422e+00
  1.4080904e-01
  1.1651126e+00
  6.0686678e-01
  3.0284083e-01
  9.4758302e-01
 -9.2625898e-01
 -5.2334332e-01
  7.2718209e-01
  3.3636079e+00
  7.3258090e-01
 -5.0679290e-01
  1.8619759e-01
 -4.2279664e-01
  6.6530454e-01
 -6.0067732e-06
 -5.8156663e-01
 -6.7181224e-01
  2.8924856e-01
  5.4137141e-01
 -1.6427712e+00
  4.2339146e-01
  1.5322491e+00
  2.3156779e-01
 -1.7155653e-05
 -2.3967801e-01
  1.6372658e+00
 -6.2633194e-02
  5.8753623e-05
  3.7731004e-01
 -3.9381430e-02
  1.6221140e-01
 -5.9300447e-01
 -1.3431562e+00
 -8.3889240e-01
 -1.3457587e+00
 -2.3038565e-05
  9.4113745e-02
  4.5584044e-01
 -3.3201098e-02
  1.6221007e-05
 -4.7658094e-05
 -1.8956849e-05
  1.0195564e-03
  6.1305720e-05
 -1.0589060e-02
 -4.8815448e-02
 -3.9543116e-05
  5.3003591e-01
 -2.7405395e-04
 -2.0781867e-02
 -9.9299280e-03
 -4.4927731e-02
 -3.2376856e-01
 -5.2953041e-01
  1.3493843e-04
  4.9320270e-06
 -2.3212684e-04
 -2.1361887e-02
 -2.4842635e-01
  2.5616100e-05
 -3.5795110e-05
 -2.4629515e-03
 -2.3380455e-05
  9.7371067e-06
 -6.3088095e-01
 -5.9675334e-05
  3.5196477e-05
 -6.0373447e-03
 -4.4977849e-05
 -3.7480375e-05
 -1.4500682e-05
  1.5664895e-05
  2.4208111e-04
  7.9655886e-01
 -7.3958494e-05
 -4.8268652e-05
  5.4134038e-05
 -2.5847576e-05
 -1.4196281e-04
 -2.0707670e-05
 -6.5654320e-05
 -2.5110488e-04
  5.1398805e-05
 -2.0343120e-01
  1.0542357e-04
 -1.8600993e+00
  2.0717353e-01
 -1.0606664e-01
  2.2015145e+00
  6.2091088e-01
 -9.0920359e-01
 -3.7794298e-01
 -1.1786990e-01
 -2.5464096e+00
 -1.2915012e-01
 -2.1178672e-01
  6.9730379e-02
 -3.8762265e-01
  6.0202312e-01
  1.1140911e-02
 -2.4095671e-01
 -4.2900854e-01
 -4.4577673e-01
 -5.7733393e-01
 -5.6939936e-01
 -1.1951979e-02
  4.4843969e-01
  1.5501027e+00
 -1.0271596e+00
  3.2480809e-01
 -6.4025320e-02
 -7.7164942e-01
 -1.2860568e+00
 -1.1606827e+00
  4.2182329e-01
 -5.2195048e-01
 -2.5041172e-01
  2.0971980e+00
 -1.9639435e-01
 -6.2599145e-02
 -9.6535158e-01
  9.4386684e-03
  3.5153610e-01
 -1.6288300e-01
 -9.7237438e-02
 -4.6046534e-01
 -9.9622709e-01
 -1.7408202e+00
  1.2801090e+00
  1.0844812e+00
 -2.2572774e-04
  5.9414160e-04
  3.2368978e-06
  3.5864186e-01
 -2.2580208e-01
 -2.5664236e-02
 -6.9264673e-02
  4.1084141e-01
  4.2304557e-02
  8.5869884e-05
 -1.3564522e-05
 -6.8040987e-05
 -4.7542395e-05
 -9.1948923e-06
  1.1157527e-04
 -5.8266596e-05
 -8.8604727e-05
  9.2794717e-06
  1.3245784e-05
 -7.0007001e-05
  7.1948816e-05
  4.8086105e-05
  3.2028820e-06
  9.7712626e-05
  1.3869090e-04
 -5.7545403e-04
 -3.9819748e-05
  6.8175058e-07
  1.4174048e-05
 -8.7315304e-05
  3.4593047e-06
 -3.2836018e-05
 -3.9718310e-05
 -7.5180474e-06
  3.9987313e-05
  4.3201726e-06
 -3.6884874e-06
  1.2032617e-05
 -5.3163629e-05
 -2.8952255e-07
 -8.8375828e-06
 -2.6031234e-06
 -9.9615638e-05
  1.9136174e-05
  6.7296052e-05
  4.5869270e-05
  1.0528853e-04
  1.8004042e-05
  9.3140436e-05
 -5.0739767e-05
  6.4560925e-05
 -1.7974513e-05
 -5.2481093e-05
 -6.3969778e-06
  1.3661609e-05
  1.8738372e-04
 -1.7585748e-05
 -4.1320891e-05
 -6.8566958e-05
  2.9181092e-05
  4.1001691e-05
  4.0736417e-05
 -1.7468010e-05
 -1.5318450e+00
  9.6824127e-01
 -3.9791316e-01
 -3.0493876e-01
 -7.3622185e-01
  8.1622654e-01
  4.0587121e-01
 -8.1607823e-06
  1.7026628e+00
  1.8161203e+00
  7.6822564e-02
  7.2722878e-07
  1.4771241e+00
 -1.4059941e-01
  1.0020401e-01
 -2.8314841e+00
  8.0517870e-01
  3.2297513e-01
 -1.2449227e-01
  1.2265918e+00
  3.0144867e-01
 -2.5511935e+00
  1.5193650e+00
  1.0339464e+00
  2.7412359e-02
  8.1315353e-05
  4.0115002e-01
  1.0446357e+00
 -4.4079953e-01
 -1.9639621e+00
 -1.2181286e+00
 -7.3691595e-01
  1.2598606e+00
 -8.9587128e-01
 -3.3035643e-02
  2.6927769e-02
  1.8449065e-05
  5.8770728e-01
 -1.6270220e-01
 -4.6490216e-01
  4.6366900e-01
  1.3850746e-03
  4.7227034e-01
  8.3804530e-01
  6.5103523e-02
  3.3362734e-04
  1.4924824e+00
 -6.9174193e-02
  1.7224936e-01
 -1.5531458e-04
  2.0396570e-03
  9.6414548e-01
  2.5814950e-01
  2.3482060e-01
  6.5875152e-05
 -3.9954146e-05
 -4.7528632e-05
  3.5384887e-06
  8.5445157e-05
 -1.4276528e-04
  3.2161570e-06
 -2.2308777e-05
 -4.2496699e-06
  8.5293295e-06
 -9.5490832e-06
  4.4665976e-06
 -3.2001164e-05
  8.0862439e-05
  1.3344679e-05
  6.3781313e-06
 -3.1953150e-05
  1.1554172e-05
 -3.5271751e-05
 -2.2804188e-05
 -1.2984083e-05
  1.3041619e-04
  3.5879690e-05
  1.1681795e-04
  3.2017346e-05
  7.0432085e-05
 -5.0776657e-06
  2.7229809e-05
 -7.1313523e-05
 -1.2627311e-04
 -5.8910176e-05
  2.3360146e-05
  9.7518041e-06
 -3.0979816e-05
  7.2316871e-05
 -5.8305162e-05
  6.0267877e-05
 -1.7706969e-05
  6.7476896e-05
 -4.1221988e-06
 -3.7766786e-05
 -3.1372732e-05
 -4.6661553e-05
  8.5969623e-06
 -1.8869003e-05
  7.0004135e-05
 -3.3846569e-05
 -5.4065122e-06
 -7.5185635e-05
 -1.8173399e-06
 -3.8169246e-06
 -4.8672282e-06
 -8.8212328e-06
  6.3705687e-05
  8.8960689e-01
  1.5080118e+00
  2.2876577e-01
 -5.3439188e-01
  7.9883480e-01
 -1.5994437e+00
  3.1387337e-02
  2.3307948e+00
  1.2265940e+00
  6.4119363e-01
 -7.4020559e-01
 -2.9651263e-01
 -7.2513497e-01
  6.9631439e-01
  5.8348626e-01
  1.1483788e+00
 -2.1749084e+00
  2.2324279e-01
  3.3223507e-01
  5.8077258e-01
  4.8799834e-01
 -2.2263470e+00
 -6.4346391e-01
 -3.5055858e-01
  5.1165741e-02
  1.7547320e+00
  9.8804963e-01
  2.9817602e-01
 -4.9633913e-02
  1.3973668e+00
 -3.1908870e-01
  4.2338592e-01
  2.3235014e-02
  1.4285740e+00
 -2.5320039e+00
  6.2257688e-02
  3.6092073e-01
 -1.7516583e+00
  5.7386053e-01
 -1.3575413e+00
 -3.1783845e-02
 -1.7345192e-05
  8.3864801e-02
 -1.0397977e-05
  8.2180780e-01
  2.4654822e-05
  1.8158755e-01
  1.7163075e-04
  5.8866826e-05
 -1.0587096e-01
 -2.1536702e-02
 -7.5623083e-01
 -1.8143543e-05
 -9.3308941e-02
  6.4241402e-05
  3.7141573e-01
 -7.7160500e-02
 -3.2267577e-05
  9.1535214e-04
  1.0401715e-04
  1.0084327e-04
  3.4093671e-05
  5.0761540e-05
  2.5736165e-04
  3.1124186e-05
  1.5501404e-04
  1.0371471e-03
 -5.5452096e-05
  1.2278558e-04
  3.3437187e-05
 -7.3147235e-06
 -2.2126894e-06
 -4.1029693e-05
  2.4604464e-05
  1.2256452e-04
  1.3501231e-02
  9.5594180e-05
  1.3750790e-04
  3.5094024e-05
 -1.8530474e-05
  2.3059856e-05
  2.3516605e-04
 -8.7281769e-06
 -1.2501789e-05
  5.1281393e-05
  1.3229563e-05
  3.4625896e-06
  1.9050462e-02
  3.0938693e-06
 -9.5807118e-06
 -3.7173820e-06
 -1.5852755e-05
 -2.1320351e-05
  4.2551397e-05
  8.0306709e-05
 -8.0337632e-06
 -3.1702253e-05
  4.7744848e-05
  3.3679837e-05
  2.4224160e-05
 -2.6967020e-05
 -1.2392035e-05
 -1.8514194e-04
 -3.4962439e-05
  2.2358594e-05
 -4.5483075e-06
 -4.6429900e-06
 -1.4869313e-05
 -7.1394432e-01
  4.5399529e-01
 -4.7521605e+00
 -1.3435671e+00
  1.9466587e+00
  1.2883943e+00
 -2.1731791e+00
 -1.1895937e+00
  1.9242851e-01
  1.3044610e-04
 -2.8717396e-01
 -8.7200760e-06
 -3.2055497e-05
 -9.9844383e-06
  3.1049745e-04
 -2.3302890e-05
  4.5511397e-06
 -9.5154554e-02
 -6.0220873e-01
 -1.7611064e-06
  5.5506402e-01
  8.1126651e-05
  4.6575108e-01
  3.6485785e-01
  2.9733339e-01
  1.4971288e+00
  1.0353034e+00
 -4.8780492e-01
  3.5904854e-05
 -1.6800340e-01
 -3.8063783e-06
 -1.0402084e-05
  2.0397827e-05
  9.3841732e-02
 -2.2910523e-01
  1.2315437e-05
  1.5781050e-07
  8.0565503e-03
 -1.0562983e-02
 -4.7109523e-05
  2.7704522e-01
 -1.1042893e-04
 -1.9230586e-01
  2.6257965e-04
  1.3953207e-01
  1.0402540e-04
  1.3866234e-05
 -3.4861938e-07
  9.7175380e-06
  1.5044219e-05
 -6.3548431e-02
 -7.0575411e-06
 -2.2304419e-05
 -3.7578957e-05
 -1.6277181e+00
  1.5513695e+00
  7.2650307e-01
 -6.1026299e-01
 -8.9714104e-01
 -1.4006664e-01
  8.6556268e-01
 -5.4736567e-01
 -4.4476959e-01
 -1.8250130e-05
 -1.7669053e+00
 -4.7472186e-05
  1.0716839e+00
 -1.1841520e+00
  1.8438963e-05
 -2.2547810e+00
 -6.5100038e-01
  4.2706784e-02
  2.2164689e-01
 -2.7334566e+00
 -4.5366907e-01
 -1.4184253e-01
  9.8577654e-01
 -3.3703575e+00
 -7.0255433e-06
 -8.8139856e-01
  2.7487435e-05
  2.1570771e+00
  8.5734491e-06
 -1.6085913e+00
 -6.3096648e-01
  6.0729420e-01
 -1.4545258e+00
 -5.9482449e-01
  5.7587868e-01
  2.2468719e-01
  3.5677722e-01
  3.9525324e-01
  3.1209347e-01
  4.8495058e-06
 -1.0643970e+00
  1.5841997e-01
 -6.4096385e-01
  1.4330898e-01
  7.2574526e-02
  5.7701504e-01
  1.0075136e+00
  6.1883664e-01
 -2.5225046e-01
 -1.5253839e+00
 -6.4871949e-01
  9.4297779e-01
 -2.4246114e-01
 -1.1016573e+00
  5.7344056e-05
  7.2489506e-01
 -4.6086229e-06
  5.9168363e-01
  8.5225314e-02
  3.7096331e-01
  4.0590510e+00
  1.7340218e-01
 -7.4010837e-01
  1.4098275e+00
  3.8519600e-01
 -9.1847447e-05
 -2.0033796e-01
  2.5570209e+00
 -8.4172714e-01
  1.6738056e-01
  4.2652574e-01
 -5.6984150e-01
 -9.1916835e-01
  1.0804575e-01
  1.6526765e-01
 -3.7897092e-01
 -6.2202167e-02
 -1.8734920e-01
 -2.0273075e+00
  9.0631944e-01
 -2.0125014e-01
  4.0223316e-04
 -3.0960947e-01
 -2.1095951e-03
 -1.8170992e-01
 -1.7786143e+00
 -1.5100349e+00
  1.1124487e+00
 -7.7685291e-01
 -1.4856953e-05
 -6.2507421e-01
 -2.4138215e+00
  3.4492005e-02
 -3.5679823e-05
 -7.8579801e-01
  1.9091659e+00
  3.0126300e+00
  1.4724092e-01
  7.5081807e-01
 -9.6712279e-01
  4.7045591e-01
 -2.5027832e-06
  8.2311720e-01
  1.8065202e+00
  1.3694108e-01
 -4.1162339e-06
 -4.2705957e-04
 -4.3009277e-02
 -1.0975072e+00
  5.0371808e-01
  6.2517303e-01
  3.9310050e-01
 -1.8003775e+00
 -1.9727881e-06
 -4.1010806e-01
  1.8647598e+00
  4.4302246e-01
  3.7532899e-01
 -1.2472857e-01
  3.2951912e-01
 -4.8481196e-01
  3.2588716e-05
  4.4784009e-01
  5.8149976e-01
  3.7526596e+00
 -8.9015019e-01
  1.7994603e+00
  1.3545654e+00
  8.8813283e-02
  1.4272236e+00
  2.3405865e-01
  8.3979309e-01
  2.2333038e+00
 -5.1474489e-02
 -7.2921199e-01
  1.2461592e+00
  4.8728466e-01
 -3.3520749e-01
  2.0280776e+00
  9.9313138e-03
 -1.8342227e+00
 -9.0612221e-01
  3.7752345e-01
  2.0386624e+00
 -2.4247290e-01
  4.5125395e-01
 -5.1291853e-01
  4.5991236e-01
 -4.5810390e-01
 -3.9128146e+00
 -4.7153914e-01
  2.6289101e+00
 -6.0093775e+00
 -1.8804425e+00
  6.6187578e-01
  8.7757385e-01
 -1.0743511e+00
  6.4712447e-01
 -3.8498166e-01
  1.4754871e-01
  1.4247351e+00
 -7.8833961e-01
 -4.7866610e-01
 -2.3700836e+00
 -3.2524734e+00
 -1.0678278e+00
 -3.4635061e-01
  1.0440173e+00
 -1.2672356e+00
 -1.0400798e+00
 -6.7291325e-01
  1.7134018e+00
  4.8397798e-02
  5.8144569e-06
 -3.2780936e-01
 -1.5658305e+00
 -8.5717672e-01
 -6.2044334e-01
 -8.7182444e-01
  1.7214502e+00
 -4.8250797e-01
 -8.9595520e-01
  1.3327363e+00
  3.1021535e-01
 -1.8165911e+00
 -9.0096879e-01
  5.0650418e-01
 -3.1027377e+00
 -1.4421573e+00
  1.3594669e+00
  1.5689830e+00
 -8.1366909e-01
 -8.5199639e-02
 -2.6695859e-01
  2.5009915e-01
  7.2690970e-01
 -7.3087013e-01
 -7.8143966e-01
 -1.8492603e+00
  1.2300601e+00
  1.3047481e+00
  1.4036505e+00
 -4.9916106e-01
 -5.2736962e-01
  2.3017557e+00
  8.6151809e-03
 -7.6514325e-04
 -5.2536690e-01
  1.3873831e+00
  2.2664957e-05
 -3.0955652e-04
 -1.0517788e+00
  1.2642019e+00
  5.0123298e-04
 -1.4429584e-06
 -5.6235409e-01
  7.3542893e-02
  1.2602289e+00
 -9.2335777e-06
  8.0436295e-01
  8.4201276e-01
  8.7934095e-06
 -1.6693991e+00
 -8.8204366e-01
 -3.6781120e-01
  2.8196000e-03
 -4.3447265e-01
 -3.2042670e+00
  1.6312857e-01
  7.4981487e-01
  7.0092529e-02
  4.4368196e-01
 -2.6899691e+00
 -1.6282205e-01
  6.9349241e-01
 -5.2425027e-01
  1.4620370e+00
 -5.5935019e-05
 -1.1003330e+00
  1.1165792e+00
  2.6259756e-01
  4.2652581e-02
 -1.4942794e+00
 -4.0851954e-01
  9.8804998e-01
  3.2205090e-01
  3.5627630e-01
  8.4521693e-05
 -4.8303235e-02
 -1.2900152e-02
 -7.1113712e-01
 -1.9869255e+00
  2.6222889e+00
  1.5007514e-01
 -2.3206742e-01
 -5.9241134e-01
 -1.5355862e+00
  4.4462778e-02
  1.2415235e+00
  2.0419361e-04
  9.0960455e-01
 -8.1360728e-01
  1.9638264e-01
 -3.3436123e-01
  3.7884641e-01
  6.6365170e-01
 -1.8459911e-03
  4.2686296e+00
 -1.2187610e+00
  6.7642713e-01
 -9.9269200e-06
  1.6683886e+00
  1.0526036e+00
  3.1635724e-02
  2.5932250e+00
 -9.2442375e-01
  3.8645065e-01
 -5.2999443e-01
  9.5807850e-01
  5.8484402e-02
  6.5108889e-01
  2.0891328e-01
  2.3572887e-01
  2.5127372e-01
  5.6072520e-05
 -1.0818738e+00
  3.1900982e-04
  5.0702691e-01
 -3.0576921e-01
 -6.6983777e-01
 -8.6805713e-01
 -4.7970474e-01
 -1.3513836e+00
  1.7507365e-01
 -5.8214862e-02
  1.1301467e+00
  4.2446208e-01
 -5.7097107e-01
 -1.2469527e+00
  1.9665213e-01
 -1.7640250e+00
  2.0051058e-01
  1.7361221e-01
  1.7777595e-01
 -7.0150125e-01
  1.2513174e+00
  9.6374518e-01
 -4.2446986e-02
 -2.3296394e+00
 -1.4052756e+00
 -5.6712234e-01
  1.2238114e+00
  1.7113497e+00
 -4.6154273e-01
 -2.7390856e-01
  3.0477276e-01
 -7.5157225e-01
  1.0409147e-02
 -1.5928835e+00
  1.9314358e+00
  9.1466904e-01
 -2.5967369e+00
  1.9272320e-02
  7.1470022e-02
 -2.2189395e-01
 -7.7139741e-01
  2.5817263e+00
  5.2743442e-02
 -5.6719708e-01
 -2.6290125e-05
 -2.1099875e+00
  3.1612802e-01
  1.1137738e+00
 -7.0341069e-01
 -6.8518740e-01
  1.4615252e+00
 -2.8117356e-01
 -4.9018160e-01
 -9.8043449e-02
  2.7493063e-01
 -1.3603522e+00
  1.1963986e-01
 -3.5909668e-01
  9.4174540e-01
  1.4390802e+00
 -3.2199630e-01
  4.6302835e-03
 -1.7365491e+00
  1.3132616e+00
  1.3912265e-01
  4.7130191e-01
  3.5777602e-01
 -6.5981641e-02
  4.9021080e-05
 -5.1342034e-01
 -4.1891584e-01
 -6.1318493e-01
 -8.4804928e-01
 -1.2925366e+00
 -4.9113590e-01
  2.2605604e-01
  2.4853070e+00
 -2.6435420e-01
 -5.2962732e-01
 -1.6141877e+00
  1.0526640e+00
  1.6711484e-01
  2.7993472e+00
  6.3363320e-01
  5.3965694e-01
  1.2325165e+00
  3.4425625e-01
  1.3211173e+00
 -1.1154072e+00
 -1.9531875e+00
 -1.5235698e+00
 -8.5240461e-02
 -1.4417349e+00
 -4.3369312e-02
  2.2333276e+00
 -4.8760405e-01
 -4.8226029e-01
 -6.3869822e-01
  8.0066544e-01
  1.0142626e-01
 -1.3013272e-01
  1.5417305e+00
  6.2782168e-01
  1.7317208e+00
  8.8266679e-06
  2.4097927e+00
 -1.0344709e+00
  2.9224843e-01
 -2.5596519e-05
 -5.3606424e-02
  5.1164299e-01
  5.2528405e-01
  1.1669626e-01
  9.1069931e-01
 -4.0345349e+00
 -1.5776517e+00
 -3.9124180e-02
 -2.9452455e-01
 -1.8113966e+00
 -2.7068803e+00
  8.8569152e-01
 -1.8488156e-05
  2.6897311e+00
 -1.2071443e+00
  1.0449661e+00
  1.2564256e+00
  2.1582124e+00
  6.8950623e-02
 -1.9486782e-01
 -1.7218555e+00
 -2.2114654e-01
 -1.1379063e-01
  5.2335125e-01
  1.1927398e-01
 -3.7564245e-01
  3.3681035e-01
  2.2530399e-02
 -2.0033971e-03
 -8.1822306e-01
  1.1346010e+00
  1.4616791e-04
  4.0670202e-05
 -2.2754800e+00
 -2.7176266e+00
 -3.8687202e-01
 -1.3554293e+00
  6.7345101e-01
  1.9175750e+00
  5.6222260e-01
 -5.5163991e-01
 -3.4073839e-01
  9.9394059e-01
  1.7949333e-04
 -1.5494301e+00
  6.7344499e-01
 -1.9738193e+00
 -7.3663753e-01
 -1.2243044e+00
  7.6980346e-01
  4.4305798e-01
  2.4147686e-01
  4.5384493e-01
  5.9016210e-01
 -3.3882174e+00
  9.1275182e-03
  2.3229562e-02
  8.9653242e-01
 -6.0299766e-01
 -1.7066656e-01
 -8.1191108e-02
 -7.2075856e-01
 -4.5234346e-01
  4.7427171e-01
  1.8275756e-01
 -1.1228788e+00
 -1.0496501e+00
  4.6475951e-05
 -3.2762895e-05
 -1.3617582e+00
 -1.8849612e+00
  6.4550197e-01
 -2.2111082e-05
 -1.3731723e+00
  2.0342985e-01
  3.1276160e-01
 -3.1603023e-01
  1.4400553e+00
  1.2746660e+00
  4.6049110e-05
  1.2946161e+00
 -1.4637078e+00
 -1.2643768e+00
  3.1329674e-01
 -5.4591149e-01
  1.5616742e+00
 -1.8129760e+00
  2.3545569e-01
  6.9266206e-01
 -1.7205765e+00
 -2.2438207e+00
  2.6057825e-05
  6.7658085e-01
 -6.7562819e-01
  6.0716224e-01
  3.2191968e-01
 -2.0997121e+00
 -1.5870837e+00
  2.6446392e-04
 -7.5952733e-01
 -4.1793725e-01
  3.7665072e-01
  1.5400403e+00
  1.0018295e-04
 -6.2750548e-01
 -1.2820530e+00
  2.1394622e+00
 -2.3711929e-01
  2.4845004e+00
  9.7904795e-01
 -3.3068414e+00
 -6.8160158e-04
 -9.3753791e-01
 -4.5455566e-01
  8.8149273e-01
 -4.2224100e-01
 -8.8402092e-01
 -7.7136427e-01
  3.5853887e-01
  2.2281834e-01
  8.6784166e-01
 -2.4330336e-01
 -3.7534958e-01
 -2.3184958e-01
  9.5170444e-01
 -4.2262366e-01
  8.2763702e-01
  9.2904585e-05
 -1.7185315e-01
 -1.9974868e-01
  1.0041038e+00
 -1.0100838e+00
 -9.8311436e-01
  9.0953964e-04
  5.4771644e-01
 -1.9300114e-01
  5.6789589e-01
 -6.9786876e-01
 -3.0182081e-01
  1.2815490e+00
 -2.0479434e+00
  1.6241007e+00
  4.8006082e-01
 -1.5612441e+00
  6.8095726e-01
  5.7184267e-01
 -4.0363612e+00
  1.7875710e+00
 -1.7619510e+00
  1.8306497e+00
  2.4183681e+00
  5.1336735e-02
 -2.7073071e+00
 -8.0016190e-01
  1.3247209e+00
 -6.4130306e-01
  1.6573934e-01
  9.6920562e-01
 -1.0258074e+00
  1.3944906e+00
  2.8389448e-01
 -6.7973864e-01
  3.6919829e-01
  1.7283273e+00
  1.7427905e+00
 -7.6331300e-01
 -7.7147627e-01
  1.8195093e-01
  1.1003445e-01
 -4.7413442e-02
 -1.7128201e-01
 -5.5692202e-01
  9.6955651e-01
 -9.4190739e-02
 -5.2143162e-01
 -1.6341264e-05
  1.1674320e+00
 -1.4087142e+00
 -5.4804601e-02
  2.0778005e+00
  2.6340229e-02
 -8.6649871e-01
 -1.4522229e+00
 -2.7686730e-01
 -7.2624505e-01
 -1.9795565e-01
  2.4560227e+00
 -3.9362022e-01
  8.4297985e-01
 -4.2016661e-01
 -3.8047547e+00
  2.2770863e-02
 -1.4027900e+00
  8.0103368e-01
 -3.9022586e-01
  2.4339205e-01
 -9.7792260e-02
 -6.3038594e-01
  1.4997773e+00
 -7.0391226e-01
  2.2900472e+00
  1.9829878e-01
  7.9794639e-01
 -3.3563375e-01
  2.8024442e+00
 -4.8077468e-02
  9.0423089e-01
  7.5368315e-01
  3.9904273e-01
  3.4982693e-01
 -7.6067555e-01
 -1.3598549e-01
 -9.8967290e-01
  2.1789607e-01
 -1.6886759e+00
  7.9848647e-01
  3.2346168e-01
 -1.3084356e+00
 -2.9409447e-01
  8.8464642e-01
 -4.8197886e-01
  1.4527620e+00
  9.0230215e-01
 -1.6785009e-01
 -3.4550104e-01
  1.0556659e+00
 -8.0699402e-01
 -1.9459471e+00
  3.9794555e-01
  6.6506058e-01
  4.3487370e-01
 -2.0650578e+00
 -2.2433038e+00
  7.8783512e-01
 -1.3720797e+00
  2.5851399e-01
 -2.4237290e-01
 -1.2285025e-02
 -3.9522320e-02
  4.3940836e-01
 -4.8294261e-01
  1.1381042e-03
 -8.2658368e-01
 -1.1957525e-01
  1.9861045e-01
  7.8000218e-01
  1.7985371e-01
  2.3060846e-05
  5.0775570e-01
 -9.7724861e-01
  2.8917420e+00
 -1.2573992e+00
  1.7726003e+00
 -3.1447887e-01
  1.1941781e+00
 -1.9765425e-01
 -8.5541034e-01
 -2.7253187e+00
 -1.7863503e+00
 -7.7006742e-02
 -2.3381724e+00
 -5.9776020e-01
 -2.8327692e+00
  2.0168211e-01
  1.2951564e-02
 -1.0027892e-01
  1.8642023e+00
 -8.7188464e-01
 -1.0940024e+00
  2.9644656e-01
  1.3337338e+00
  9.5020878e-01
 -6.3847303e-01
  9.9824721e-01
  3.8055602e-01
  1.0860109e+00
 -1.1422383e-01
  3.6453998e-01
 -3.6864129e-01
 -1.1440437e+00
  2.8434089e-01
  1.0824864e+00
 -8.7523615e-01
  3.9484654e-05
  5.2092683e-01
  1.7780806e+00
 -9.2366527e-06
 -2.8966175e-04
 -1.0551819e-01
 -2.3426123e-01
 -9.0441865e-01
 -4.2102149e-01
  3.9446387e-01
  4.3802857e-02
  5.8892685e-01
 -2.5507006e-01
 -2.0053741e-01
  6.3513094e-01
  1.0813780e+00
 -8.0502826e-01
 -1.0104737e+00
  7.1371680e-01
 -5.0458890e-01
 -1.7201827e+00
  1.1821471e+00
 -2.1064444e-01
 -1.3020383e+00
 -1.7256543e-02
 -1.3080599e+00
 -7.2888888e-02
 -1.4201875e+00
  3.4910712e-02
  9.6813112e-01
  5.1202500e-01
 -6.7790639e-01
  2.1641007e-02
  2.1641007e-02
  2.1641007e-02
  2.1641007e-02
  2.1641007e-02
  2.1641007e-02
  2.1641007e-02
  2.1641007e-02
  2.1641007e-02
  1.6096780e-01
  1.6096780e-01
  1.6096780e-01
  1.6096780e-01
  1.6096780e-01
  1.6096780e-01
  1.6096780e-01
  1.6096780e-01
  1.6096780e-01
  7.8170300e-02
  7.8170300e-02
  7.8170300e-02
  7.8170300e-02
  7.8170300e-02
  7.8170300e-02
  7.8170300e-02
  7.8170300e-02
  7.8170300e-02
  2.5711073e-02
  2.5711073e-02
  2.5711073e-02
  2.5711073e-02
  2.5711073e-02
  2.5711073e-02
  2.5711073e-02
  2.5711073e-02
  2.5711073e-02
  1.3060363e-02
  1.3060363e-02
  1.3060363e-02
  1.3060363e-02
  1.3060363e-02
  1.3060363e-02
  1.3060363e-02
  1.3060363e-02
  1.3060363e-02
  1.1430941e-01
  1.1430941e-01
  1.1430941e-01
  1.1430941e-01
  1.1430941e-01
  1.1430941e-01
  1.1430941e-01
  1.1430941e-01
  1.1430941e-01
